-0.1585579553073128100000000000000,-0.1264151714934589300000000000000,-0.0586484886153862200000000000000,0.1280396059198788400000000000000,-0.1360692701621442900000000000000,-0.129774811686159200000000000000,-0.02256534714121562500000000000000,-0.05790927720521638100000000000000,-0.004446184832091254100000000000000,-0.1120138377648927500000000000000,-0.1237015376511904600000000000000,0.2231613103902984900000000000000,-0.1539994328655897300000000000000,-0.08546729045442258400000000000000,0.1015929082840714800000000000000,0.0216616612310713900000000000000,-0.1318421100112305600000000000000,-0.1497635656338331100000000000000,-0.08605146390506390700000000000000,-0.07301972115072807900000000000000,-0.08485447450316113700000000000000,1.352994613405479300000000000000,-0.03934202780992841800000000000000,-0.04135712441766541800000000000000,-0.1221259627580479300000000000000,-0.03223027931210895700000000000000,-0.07491978358118182900000000000000,0.0863626563274967200000000000000,-0.1272511894285489600000000000000,-0.07643009438294619300000000000000,0.06387007186312292100000000000000,2.106637985024915100000000000000,-0.07193113411756484100000000000000,-0.05449458745956841500000000000000,-0.02912326762025477900000000000000,-0.05675431583959848100000000000000,-0.08044946838200568700000000000000,-0.08231439757943671800000000000000,0.03732693446772582200000000000000,-0.01601527489107798900000000000000,-0.1449020930478001300000000000000,-0.06516700596300341300000000000000,0.002947394409134859100000000000000,-0.1874547667201358900000000000000,0.1126710635121117300000000000000,-0.1012347215681019500000000000000,-0.09224103188892993100000000000000,-0.1468114453182129100000000000000,-0.1055352949849000700000000000000,-0.04411091850211470300000000000000,-0.1460237006690890400000000000000,-0.06885230834037259200000000000000,-0.001417051132387721100000000000000,-0.07164816087596946600000000000000,0.7796528729450724600000000000000,-0.004688788552830820300000000000000,-0.1185305209521798400000000000000,-0.1038944470670971600000000000000,-0.04690281701112902800000000000000,-0.1405193633785914200000000000000,0.01002872363177320600000000000000,-0.05478670317062014200000000000000,1.484143319411302700000000000000,-0.09200955815496737700000000000000,0.006411211027495301200000000000000,-0.0899842090275165400000000000000,0.0353831251144925700000000000000,-0.06639733473731526700000000000000,-0.05474705254353643600000000000000,0.006380703003694538300000000000000,0.03899235564444594700000000000000,-0.1101705976717602500000000000000,-0.452420299099932700000000000000,0.09781955676577762400000000000000,-0.03889702964737710300000000000000,0.007543812243576949800000000000000,0.009227173888919561200000000000000,-0.004338003890143040900000000000000,0.3017812612170228100000000000000,0.00722203401436129300000000000000,0.005469856139734609700000000000000,0.0753569797276220500000000000000,0.9279144112239995400000000000000,-0.08760521750347423400000000000000,-0.1238362378098102900000000000000,0.06422462168080626800000000000000,-0.1046444740843724800000000000000,-0.05856980513714142600000000000000,0.008317816593422748900000000000000,-0.103352158648756200000000000000,-0.09777469130255346500000000000000,0.02573227480785561900000000000000,-0.1493175112775898300000000000000,-0.1254008856752776600000000000000,-0.1177817453702572800000000000000,-0.4342383615057879300000000000000,-0.0133996059485509600000000000000,-0.1240506155308252100000000000000,0.05858854818361752100000000000000,0.07122733615404644400000000000000,-0.03150782181090373800000000000000,-0.2477375666264506900000000000000,0.001360749227951532300000000000000,0.08053576550626068100000000000000,-0.01610753394815251500000000000000,0.2093646886534288300000000000000,-0.06578241160404119100000000000000,-0.0358534092807836700000000000000,-0.04007176978318351100000000000000,0.06690014679044628500000000000000,-0.1038723800462338800000000000000,-0.01476576291538748500000000000000,-0.1286352492089614900000000000000,0.2396750634580356900000000000000,-0.02010945404273662900000000000000,-0.1148676947111852400000000000000,0.1751941433807429100000000000000,0.1084904867163035100000000000000,-0.1033790983605694400000000000000,-0.06641186193037720800000000000000,-0.1404493613734934500000000000000,0.07940945553609962700000000000000,-0.115506174409367200000000000000,0.6198096041905736300000000000000,0.07944673187718283300000000000000,-0.1305500620127979500000000000000,0.03846318186744010500000000000000,0.04104089631058313600000000000000,-0.1084909752154699800000000000000,0.1173296498584457100000000000000,-0.144595488368172100000000000000,0.06846235153498540800000000000000,0.1512722245168381700000000000000,0.1495837248669230300000000000000,-0.09784694410173221100000000000000,-0.1285918675254724400000000000000,-0.06298573039328692100000000000000,0.04986276260361138100000000000000,-0.02092068943993464400000000000000,0.02653269186400320300000000000000,0.1734496956994043500000000000000,-0.1525951505375069700000000000000,-0.01352745429137085400000000000000,-0.00630929781349108800000000000000,-0.03495219737414064600000000000000,-0.1391580984700076200000000000000,0.0862738248577796100000000000000,0.06048901781789113600000000000000,-0.06390459752761573600000000000000,-0.05742975473018054100000000000000,0.03454985559790587500000000000000,0.07926720187886719700000000000000,-0.1044637315477908300000000000000,-0.009135983581635368600000000000000,0.06099747829997074300000000000000,0.03909508361351316700000000000000,-0.1646055512740087200000000000000,-0.1029395890499487900000000000000,0.07283881330777018700000000000000,-0.01538378191209070900000000000000,-0.06511131196173296200000000000000,-0.1174560632515136400000000000000,-0.04710158844134766700000000000000,-0.04929024714141377900000000000000,-0.3091536041130191800000000000000,-0.02605948554458036700000000000000,-0.08892188650558074900000000000000,0.7034494992969665400000000000000,0.105352757415653200000000000000,-0.09079424099787743200000000000000,0.03246734075529760600000000000000,-0.08136734896172546900000000000000,0.03229506854439501100000000000000,-0.07465873282849561100000000000000,0.05229678134990428700000000000000,0.08476990910272594300000000000000,-0.04382950082117084700000000000000,0.09545287148833579700000000000000,0.007632949018811078500000000000000,-0.1283134343989840400000000000000,0.5910993997296055700000000000000,-0.03658825971072236800000000000000,0.1151552662275957800000000000000,1.03448976179547600000000000000,0.2155956843175751100000000000000,-0.08585259516151880200000000000000,-0.004935294559430984800000000000000,0.0657006102697730300000000000000,-0.05186023664785581500000000000000,0.05055286576503517600000000000000,-0.03391201015288038100000000000000,-0.316199075524268900000000000000,-0.0988859787874878800000000000000,-0.08799857043554909500000000000000,-0.07561873780594538500000000000000,-0.06090370292942484700000000000000,0.005976685752865840700000000000000,0.03189424446362801300000000000000,-0.137599588640424400000000000000,-0.06831309452486486500000000000000,-0.1321080888791625600000000000000,0.06805665082611743500000000000000,-0.03263603453968616500000000000000,-0.04778581285942894900000000000000,-0.1596250973861720300000000000000,-0.03434541386859115600000000000000,0.05372925233623410100000000000000,0.1178521902342494900000000000000,0.01997329690769267900000000000000,0.02715027797390541900000000000000,-0.06192079498562533300000000000000,0.03200313212714932200000000000000,-0.0213718231318155500000000000000,0.1088024987980231500000000000000,-0.1870646096323804200000000000000,0.2023096788785008800000000000000,0.01132848974190859400000000000000,-0.02028607920985561100000000000000,0.228733433582087200000000000000,0.1098552160037400300000000000000,0.009820041412701116200000000000000,0.005073004752103711700000000000000,-0.1442051609390182800000000000000,0.004311661349886439800000000000000,-0.06812431325500094300000000000000,0.3216918506985065300000000000000,0.1758846689975238600000000000000,-0.01892376221749698200000000000000,-0.1042149117970540700000000000000,-0.02747628703043030300000000000000,-0.1292634544291929900000000000000,0.1558751790765449700000000000000,-0.1414025059586974900000000000000,-0.02974558390130907200000000000000,0.171120706716152400000000000000,0.337321742567105400000000000000,-0.05671131886429724800000000000000,-0.02933700778434344600000000000000,0.01097051501652538900000000000000,-0.05567824815618543900000000000000,-0.02202178092299331500000000000000,-0.1042068453247657600000000000000,0.1650359487964078400000000000000,-0.1269398895786715600000000000000,-0.07462785559861595500000000000000,0.01854181327449533700000000000000,0.07150075203642210200000000000000,-0.1037209591883913700000000000000,0.1904909242336197400000000000000,-0.04176255762629901100000000000000,-0.03004819030434518300000000000000,-0.04572496387308932300000000000000,0.01682603157349105100000000000000,0.0354318950630386900000000000000,-0.2203153160341848900000000000000,-0.09427980634792736100000000000000,-0.04688866335372219400000000000000,0.08561743632188188700000000000000,-0.244741639068875500000000000000,0.1015676165113046500000000000000,-0.1086342231798694100000000000000,-0.07271495746595345300000000000000,-0.06124889980973587100000000000000,0.01907283204214718300000000000000,0.09532455089002625500000000000000,-0.09254258204097173800000000000000,0.1822626332919273500000000000000,0.1178276905633602500000000000000,-0.1422253158578832800000000000000,0.6557722810705178800000000000000,-0.03722212715997125900000000000000,-0.1104650380702992400000000000000,-0.07379399310072536100000000000000,-0.07674426967260954100000000000000,-0.006894884753299845700000000000000,-0.08802579228601274700000000000000,-0.8020168586592489900000000000000,0.09001072389714208400000000000000,-0.1103255595361830300000000000000,0.0265613032254037800000000000000,-0.09960560415365293800000000000000,-0.02173342513201462200000000000000,1.20270519316869300000000000000,-0.07200548086385341600000000000000,-0.0114140217919034700000000000000,-0.4638583883931972100000000000000,0.9034036088902910300000000000000,-0.00080845904233325700000000000000,0.02170723154132171400000000000000,-0.05471476688015041600000000000000,-0.06156079670219282600000000000000,0.038396305057744100000000000000,-0.02358734832215733300000000000000,0.3374779854607938300000000000000,-0.01954030181767956600000000000000,-0.04224009530490447500000000000000,-0.1059671199608016200000000000000,-0.004131227684355799800000000000000,-0.08424685338837270600000000000000,0.4516227938595253100000000000000,0.01731618663943505100000000000000,0.05372322042960026700000000000000,-0.03526088317826501400000000000000,-0.02577697820026706200000000000000,-0.05824038725827938200000000000000,-0.1745035243513714300000000000000,0.008213092822867834600000000000000,-0.03111552280621669400000000000000,-0.06990322017558671400000000000000,0.1139681150080964400000000000000,-0.1294460216130389200000000000000,-0.04899367566677383100000000000000,-0.06505939887306337600000000000000,0.0413048236567469600000000000000,-0.1625068873191899700000000000000,-0.01018386719787847500000000000000,-0.1884093020734889700000000000000,0.1450990068436817100000000000000,0.03447196632310906700000000000000,-0.1005304591254724800000000000000,0.1155443019035996700000000000000,0.004320258173188801400000000000000,-0.0427482074722244300000000000000,-0.0390035125754185500000000000000,-0.0851712197411378100000000000000,-0.09864753253050058400000000000000,-0.1631320784226127600000000000000,0.9245488252435533100000000000000,0.06825460737624368400000000000000,-0.0215346538499403100000000000000,-0.02800752776626152700000000000000,-0.1086025263414921900000000000000,-0.1679727143549067700000000000000,0.03880511837854480600000000000000,-0.05903041240870392200000000000000,-0.1084756245203233500000000000000,0.09201487747085619600000000000000,1.910910882102731400000000000000,-0.0398439133594201200000000000000,-0.01518539675484877800000000000000,-0.0723030856217920100000000000000,0.02627706667417854800000000000000,-0.05912685721342290200000000000000,-0.04242178470592199900000000000000,0.1406893441485599400000000000000,-0.1804206064079337500000000000000,-0.1662513846287581300000000000000,-0.1540696359528169500000000000000,-0.1596467355570151100000000000000,-0.1366283770388171100000000000000,0.09694811444753337300000000000000,-0.1213181097351876700000000000000,-0.1452143869457866400000000000000,-0.04523647982629914300000000000000,-0.03502443739981343100000000000000,-0.03456403361074013300000000000000,-0.0942071751490648200000000000000,-0.1554798813444290800000000000000,0.007976658572945594800000000000000,-0.09191505424769394500000000000000,0.09303401854434045800000000000000,-0.05567969686746538500000000000000,-0.1270534806819826600000000000000,-0.03548350879470520100000000000000,0.02316250226397785100000000000000,-0.1631170455008773800000000000000,-0.09937451776989102100000000000000,-0.1715351262493410900000000000000,0.1190792447657672100000000000000,-0.02576978417146298700000000000000,-0.145597081773606200000000000000,0.2376255053145812400000000000000,-0.113899589643293900000000000000,-0.1188181015025027300000000000000,-0.09413125886133751100000000000000,-0.1086035044944629900000000000000,-0.02601004755982751200000000000000,-0.1820580027711616300000000000000,0.837148029867706200000000000000,-0.08217192997891731300000000000000,-0.1461585329548162100000000000000,-0.1403328671777746300000000000000,-0.02188702126790480900000000000000,-0.1658477852364300100000000000000,0.2684625246517018400000000000000,-0.009488515432967886700000000000000,0.02822374058334374900000000000000,0.4820989532627700200000000000000,2.018929644814624300000000000000,-0.05855828734698117300000000000000,-0.120090918159238200000000000000,-0.02798277305885969400000000000000,-0.01657621675765067300000000000000,-0.1172728071311797800000000000000,0.05138721203497195100000000000000,-0.06281920346898245400000000000000,-0.04373942248121605300000000000000,-0.0280761530172208600000000000000,-0.07365917136797937900000000000000,-0.09595875770920334100000000000000,-0.07844399590807306400000000000000,0.1608503247579385900000000000000,-0.1440249040795590100000000000000,-0.01883220194562030100000000000000,-0.1538475149988736700000000000000,-0.0150394123327157300000000000000,-0.07028289791391716100000000000000,-0.1166254613380237300000000000000,-0.1274822374248678300000000000000,0.0394433107180393800000000000000,0.0004386234351850157500000000000000,0.4489879676590356500000000000000,-0.08552153393270468800000000000000,0.01614457984727162700000000000000,-0.0882077119772905900000000000000,0.1103996450682216600000000000000,-0.05999516485671208700000000000000,0.07991376572828295900000000000000,-0.03771240671611245800000000000000,0.6346339253590782500000000000000,-0.07219233186800715100000000000000,-0.1114019260626070600000000000000,0.3113376279477214600000000000000,0.04663802300800686700000000000000,-0.01275561436876751200000000000000,-0.05901871901547615200000000000000,-0.13101822476322500000000000000,0.005046594111434065700000000000000,-0.06445016462539253400000000000000,-0.6767991189948968600000000000000,0.1216830382720639300000000000000,-0.1279766561038073700000000000000,0.06649873137558809400000000000000,0.005538893602628283700000000000000,-0.1394707487257446900000000000000,0.49683502518569800000000000000,0.05492135890248539500000000000000,0.1040732810343778900000000000000,0.6244018511161728600000000000000,0.06136337931443174700000000000000,-0.02169633618523799900000000000000,-0.06336039918833309700000000000000,0.05410792192122049900000000000000,-0.1099167639621501800000000000000,0.02941006745331021700000000000000,-0.09705338773529480200000000000000,-0.1513504901405003100000000000000,-0.09060863128307981900000000000000,-0.08316857181812302400000000000000,0.01124261745478005200000000000000,0.07400749719534091600000000000000,-0.07942466456113912700000000000000,0.01996984095004281800000000000000,0.05464470767363623800000000000000,0.03981908798493372100000000000000,-0.1335854275142735700000000000000,0.02051352490226346400000000000000,0.08669464338420396200000000000000,-0.102560006932633300000000000000,-0.0772670767298306300000000000000,0.01953047571833200700000000000000,-0.1301393872935857100000000000000,-0.209631754105864600000000000000,-0.06152646944782782400000000000000,-0.03275439840570851900000000000000,-0.01249382971281760500000000000000,-0.124474408247873900000000000000,-0.02616228074230198700000000000000,-0.01317227338342116100000000000000,0.02776442160726436100000000000000,1.324418045051049400000000000000,0.01478836987155538900000000000000,-0.02666113208553847600000000000000,0.5701470550538315600000000000000,-0.09126910832372646400000000000000,0.03993692429167095700000000000000,-0.01254645175703977800000000000000,-0.01680594930117645600000000000000,-0.02684359374072831100000000000000,0.02480145409097369400000000000000,-0.6870906970435116700000000000000,0.1451905336238972500000000000000,-0.03248249380473592500000000000000,-0.1263020323414506500000000000000,0.08352316773920379100000000000000,-0.09842548856300119300000000000000,-0.51901522685875900000000000000,-0.1225437042074818700000000000000,-0.02574401679706521400000000000000,0.4256012814938036100000000000000,0.3429051638487890500000000000000,-0.1285491698565507900000000000000,-0.02161015116916966200000000000000,-0.04719127368079575200000000000000,-0.01780236419028672800000000000000,0.05968520829051460900000000000000,-0.03844671665708839600000000000000,0.3313784192778487200000000000000,-0.04833188002853017200000000000000,-0.1226119930627622700000000000000,-0.1419062203428875200000000000000,0.03309456607210181600000000000000,-0.002672803429343395500000000000000,0.7759649700413990800000000000000,0.03071039568924030900000000000000,0.02719529508224128500000000000000,-0.06654961892328413500000000000000,-0.07598578959021853900000000000000,-0.09343684367848839600000000000000,-0.08473006865271233400000000000000,-0.1430912065497421400000000000000,-0.09320464022623367600000000000000,-0.0005995938630801113300000000000000,0.06324659396317203200000000000000,-0.05334510411182581700000000000000,0.03435108425266336600000000000000,-0.06833344741520680500000000000000,0.07103298076337563600000000000000,0.01661583976769947400000000000000,0.01957048626337171800000000000000,-0.126998005113959200000000000000,0.3518853688784698800000000000000,0.06129306759170504600000000000000,-0.08611692787686635300000000000000,0.2513033926950213300000000000000,-0.08086206294188952300000000000000,-0.1134648018244711300000000000000,-0.09410306544415038300000000000000,-0.05178500033823879600000000000000,-0.03625308464482322700000000000000,-0.003645075777226574100000000000000,1.460343979699542500000000000000,0.1154090612301475700000000000000,-0.1568017267350587900000000000000,-0.03230404574526064800000000000000,0.01636822364132174300000000000000,-0.1388677522510560500000000000000,0.1762073000698894400000000000000,-0.08796317632791009200000000000000,0.05656318001872859300000000000000,0.1873124046108211900000000000000,-0.2179860223679394600000000000000,-0.08011586226762562600000000000000,0.05621975950169084300000000000000,-0.03317794932017151900000000000000,0.0004907185441151930200000000000000,0.03817425655931397400000000000000,0.0429592076596190600000000000000,0.1137848824304326400000000000000,-0.1113818180036781300000000000000,-0.114842170336195300000000000000,-0.04982707382743820800000000000000,-0.009213309948025849900000000000000,-0.05466635790257794900000000000000,0.1414050979080655700000000000000,-0.1104879672162699100000000000000,-0.1059522449327005300000000000000,-0.07435141711865511600000000000000,-0.1199073360898609700000000000000,-0.07627416064182937500000000000000,-0.162928004368237400000000000000,-0.1351155835021001800000000000000,-0.06636446452332557500000000000000,0.06078365410290914600000000000000,-0.1610404422225692500000000000000,-0.141655648921134300000000000000,-0.009081330329014886800000000000000,-0.08064459164245878200000000000000,0.05773113420370106600000000000000,-0.1447356655127188800000000000000,-0.07083777849209832400000000000000,-0.04199121331059475800000000000000,0.4229002460792477500000000000000,-0.1132354551106930800000000000000,-0.04567570651516678800000000000000,0.2364525795239058300000000000000,-0.06753229180195760600000000000000,-0.02780414181819443700000000000000,-0.001884708868167163700000000000000,-0.06865538453750698300000000000000,-0.02673139925448834300000000000000,-0.001651912295986614300000000000000,1.185846739221749800000000000000,0.1120316481485876400000000000000,-0.149474955180214200000000000000,0.01356292274298762800000000000000,0.004216191038379888900000000000000,-0.02363095331787754300000000000000,0.1412799275828596500000000000000,-0.07382490839933032700000000000000,-0.09345525754903584400000000000000,0.2637308883266695200000000000000,-0.1991908899681443800000000000000,0.001572569693744577900000000000000,0.009221884905161504400000000000000,0.006183477164666594300000000000000,-0.1254080559041550200000000000000,0.04932987577825229800000000000000,0.03709811737839537700000000000000,1.095986675573147600000000000000,-0.1664952457793270100000000000000,-0.0440974445185500700000000000000,-0.1212880664677417900000000000000,-0.04494841297904362400000000000000,-0.05063607150260163900000000000000,-0.3980455760705528500000000000000,-0.005637000154855973200000000000000,-0.1082726410915167100000000000000,-0.1098937669302595700000000000000,0.006343425501751943600000000000000,-0.02951127625513603700000000000000,-0.1649196379860193600000000000000,-0.03417622799324174200000000000000,0.05479268590994321200000000000000,0.08121855518975221200000000000000,0.07547557531495083200000000000000,0.05165529680777150600000000000000,0.03179790082667600200000000000000,-0.07530266706707149100000000000000,0.03134147635475973600000000000000,-0.08335199187219216600000000000000,-0.02963009837559787600000000000000,-0.1281655102144886300000000000000,0.2446786472983631400000000000000,0.07598381809868690100000000000000,-0.1092793103823799400000000000000,0.2410665242092843700000000000000,0.1077125575064483600000000000000,-0.01889861238123015400000000000000,-0.1126627132386200700000000000000,0.03280286002481493800000000000000,0.02319842737185924200000000000000,-0.1398933072174652900000000000000,0.7163685399775254800000000000000,-0.002323999276070939700000000000000,-0.006155783104185936500000000000000,-0.1397082719495031400000000000000,-0.02825258288874320900000000000000,-0.1355212372914384200000000000000,0.1933676873501414800000000000000,-0.09065755703355601900000000000000,-0.05161564405779613100000000000000,0.1659956373308780500000000000000,-0.06155044112332822700000000000000,-0.04375538790992237300000000000000,-0.03319097924856963300000000000000,-0.0518400051411590100000000000000,-0.135172993143351600000000000000,0.05524762516255755200000000000000,-0.1007526931269564800000000000000,0.198389965232370900000000000000,-0.1527585553333149500000000000000,-0.1261213822604927400000000000000,0.04446571171470659800000000000000,0.0603010161401661900000000000000,-0.0824384612836080300000000000000,0.1617837928921308200000000000000,-0.02528117734514103200000000000000,-0.0006917597788284157300000000000000,0.02901643132905071900000000000000,-0.04835944486099949500000000000000,0.0301644276482429500000000000000,-0.168114101719209100000000000000,0.001463941259044423600000000000000,0.07133860242566884800000000000000,-0.07222409994358455800000000000000,0.6144050708780889300000000000000,-0.04067121841614899200000000000000,-0.03723513163957297600000000000000,-0.1063099209222884100000000000000,-0.01583357934090857600000000000000,-0.09016224211502531200000000000000,-0.004427421875290377500000000000000,-0.05349330820024090400000000000000,-0.03163953508795951100000000000000,-0.09232697130344207100000000000000,-0.1199553972898553300000000000000,0.6335499833749882500000000000000,0.01156801143016797400000000000000,-0.1432509901691575700000000000000,-0.1322981724602791700000000000000,-0.04853474487555742300000000000000,0.07949780775912318500000000000000,0.02411407930303487500000000000000,1.044982822103042800000000000000,0.01040878959503077500000000000000,-0.02919433220611248100000000000000,-0.06329905275338081100000000000000,0.03663526819091129200000000000000,-0.04791758807865849300000000000000,0.1295328158567258800000000000000,-0.002317210459751312200000000000000,-0.09530104968081601300000000000000,-0.1256035606520442300000000000000,-0.07493850459549718200000000000000,0.03349673555039794200000000000000,-0.03159472818542508700000000000000,-0.04693186640194150400000000000000,0.01560706410697685300000000000000,0.01899953076336411600000000000000,0.03907623090332056100000000000000,-0.2480803695651619100000000000000,-0.06285075309166872300000000000000,-0.1426343993766040500000000000000,-0.1513184443561933800000000000000,0.08316111714311892600000000000000,0.004326874403367084200000000000000,0.4013588611351938700000000000000,-0.05822518956237054300000000000000,0.04551791007466003700000000000000,-0.02651144679261877400000000000000,-0.1061596330991807800000000000000,-0.01970331837278951500000000000000,-0.2107090358128042300000000000000,-0.04684236649130602700000000000000,0.05511077498055506200000000000000,0.110888614162085400000000000000,0.3260967894221239400000000000000,-0.04299242353056140200000000000000,-0.07707277897090326900000000000000,-0.02067044797589642800000000000000,-0.009939099306368865900000000000000,-0.1754414194681436800000000000000,0.08652037372642633300000000000000,-0.1848340592751797900000000000000,0.05098583358937667400000000000000,0.07893865142261118100000000000000,-0.1097647255655335600000000000000,0.2160184238920380400000000000000,0.02860130235265150700000000000000,-0.06571423160005933400000000000000,-0.08692573511574279400000000000000,-0.09701962780797994400000000000000,0.04726852971764992900000000000000,-0.03855876343852383100000000000000,-0.07297709753860971700000000000000,0.2451268255003023500000000000000,-0.01498160717950158100000000000000,-0.02412454042672407300000000000000,-0.03377984235761023100000000000000,-0.1332567273006083100000000000000,0.1653704225146896100000000000000,-0.1017970898848944700000000000000,0.01394990830539300600000000000000,0.120513368968880100000000000000,0.7785800653405171600000000000000,-0.03749627408802604100000000000000,0.0359469860427158100000000000000,-0.07884044128364067800000000000000,-0.1669196547621453200000000000000,0.01603884652575523700000000000000,0.007913397353695811300000000000000,0.0789211164973034900000000000000,-0.01606216740269545900000000000000,-0.07552261316245559300000000000000,0.0199287015462765100000000000000,-0.08851408129174591400000000000000,-0.007335643848596291500000000000000,0.1786342429129305600000000000000,-0.08307109672777537900000000000000,-0.03741947123372527800000000000000,-0.123503112488034400000000000000,0.01104954457641795500000000000000,0.07861319951140539900000000000000,-0.1434797102221343200000000000000,-0.05717678349647760400000000000000,-0.03560112474320525900000000000000,0.1195780146484915100000000000000,0.3223679705300471800000000000000,-0.03421457962078701400000000000000,0.03485773376102747200000000000000,-0.001749216383948469400000000000000,0.04245701476773885300000000000000,-0.1340824255034389300000000000000,-0.05114306859712523800000000000000,-0.1210899087003598500000000000000,-0.1020226388219699600000000000000,0.01094871731523024100000000000000,-0.1132126558766398800000000000000,-0.570447124517615700000000000000,0.03314892511893374100000000000000,-0.009963764004065529100000000000000,-0.06729483629740551400000000000000,-0.06053382732090676500000000000000,0.004825218072379862600000000000000,-0.07330670454004843700000000000000,-0.1172319475987753700000000000000,0.03291483766946213400000000000000,-0.09399122871198997700000000000000,-0.1369386318029174300000000000000,-0.1002095395852982300000000000000,-0.04668635885664079700000000000000,0.7437088848090935800000000000000,-0.04786078662168189600000000000000,-0.06377284000507743600000000000000,0.5180195998145038500000000000000,-0.1793763150309672100000000000000,0.01924490298864955200000000000000,-0.03648247437555047400000000000000,0.07683302454355590800000000000000,-0.1421558471262875100000000000000,-0.02387491685818476600000000000000,0.02941765508465173800000000000000,0.6897051916293510700000000000000,-0.02660514436699764800000000000000,-0.003617877685682963300000000000000,-0.008770837640627726300000000000000,-0.06452507374103251500000000000000,-0.02495542428392189300000000000000,0.8242998248534060300000000000000,0.02222471038200557800000000000000,0.05636135810349047300000000000000,-0.02740919812217218800000000000000,0.01609588454306118400000000000000,-0.03105176146404518500000000000000,-0.1302717969510347700000000000000,-0.05511441522271557500000000000000,0.09087286875569729200000000000000,-0.11550355436853500000000000000,0.1482861881089067900000000000000,-0.07604835098113066300000000000000,-0.07495184538129975900000000000000,-0.08821770965054950800000000000000,-0.01496530890292136400000000000000,-0.03300342119481541200000000000000,-0.03927263348254777400000000000000,-0.1497019671985609600000000000000,0.481017592588825700000000000000,-0.0969174188254229300000000000000,-0.08117499831272685700000000000000,0.1735409130612077200000000000000,-0.01909606877920585300000000000000,0.0149258640019387600000000000000,-0.02599999683592488200000000000000,-0.1170053840885513600000000000000,-0.04303410653975992700000000000000,0.03879013897689823100000000000000,2.101983213905159500000000000000,0.0665573551804923700000000000000,0.0420688492327735700000000000000,0.003394808819815283400000000000000,-0.08378608445466072300000000000000,-0.1109407942682322400000000000000,0.2869832998911662800000000000000,-0.08813997871109309500000000000000,-0.06425808246437922400000000000000,0.139496645882220300000000000000,-0.5271226848733356900000000000000,0.0673850528466401200000000000000,-0.1388872199459073900000000000000,-0.08766193187297174900000000000000,0.025013877746098600000000000000,0.009217181162229170700000000000000,0.002290668370038888900000000000000,-0.009429557163831859400000000000000,-0.1222256633204715600000000000000,-0.07589293919625088300000000000000,-0.04979476272238944600000000000000,-0.08137397314141353600000000000000,-0.140845834086426700000000000000,0.1612578975320304600000000000000,-0.1258600617060685300000000000000,-0.07023441376654580800000000000000,-0.1191324842155008100000000000000,-0.03627540447966724800000000000000,-0.07475850623218539800000000000000,-0.1812802853877933700000000000000,-0.1519229395890940300000000000000,-0.1084433999409532400000000000000,-0.1539478861918220900000000000000,0.5932722402524939200000000000000,0.005403678325674520600000000000000,-0.101900718736956800000000000000,-0.0208507708584571500000000000000,-0.05821655371049146200000000000000,-0.1597678113328003500000000000000,-0.01128167893006767400000000000000,-0.03711878741826087100000000000000,-0.004034773518064437900000000000000,0.01244786651417288100000000000000,-0.05584137627621134400000000000000,0.2893398456348605400000000000000,-0.06525983035612906200000000000000,-0.1116877034266593500000000000000,0.02669271739553459200000000000000,-0.1226170591344026100000000000000,-0.04128882366841266800000000000000,-0.06930727186187535200000000000000,1.283362215542581700000000000000,-0.004554327817146270300000000000000,-0.1438033400901833600000000000000,-0.1439343967014902700000000000000,-0.007582670843493181200000000000000,-0.1107332918745600300000000000000,0.3600012596643193400000000000000,0.03068371995517689100000000000000,-0.06042298693768883400000000000000,0.2058868657587831200000000000000,-0.04324347024691878300000000000000,-0.07992678784482268300000000000000,0.0465107829289552600000000000000,0.06051838107169671400000000000000,-0.1334839218668872600000000000000,0.02320387634238920200000000000000,0.01617479110285301900000000000000,0.3269555187499214600000000000000,-0.1689858643102592500000000000000,0.005814753293279403100000000000000,-0.1434941854408486600000000000000,-0.0358245644595347400000000000000,-0.06519570710106140100000000000000,0.4607103548215570900000000000000,0.01750831958955487200000000000000,-0.08831046302106734800000000000000,-0.01371470268541995900000000000000,-0.1075583058866763100000000000000,-0.01767775652404465100000000000000,-0.07292433920679906900000000000000,-0.07462925356848498800000000000000,0.0004958390985350556400000000000000,-0.1562769027501033600000000000000,0.6957752112086285100000000000000,0.000454667613058595600000000000000,0.04070883697992330700000000000000,-0.0269600263323739700000000000000,0.05560359643312254300000000000000,-0.1392273556335124600000000000000,-0.09203405732502731300000000000000,0.03463157229175032500000000000000,-0.1398354960183149600000000000000,0.06032451538003199400000000000000,-0.112480599515479700000000000000,0.7687460140003844500000000000000,-0.1161140158580570700000000000000,-0.004851358543557245300000000000000,0.00762817820462333500000000000000,-0.02349546885308166600000000000000,0.05414192119665784500000000000000,-0.0875613766542025500000000000000,-0.2460094151166668800000000000000,0.06971744186638159600000000000000,-0.0458343747731190100000000000000,-0.06580866769745992400000000000000,-0.124031478481561400000000000000,-0.1532666140787513300000000000000,0.04127241196187630300000000000000,-0.1286446652468823900000000000000,-0.06872261177137013700000000000000,0.2105082252927057700000000000000,0.2772972029255891300000000000000,0.01811117121166317500000000000000,0.07932560295391877200000000000000,-0.09752106481599662200000000000000,-0.06830570200767939500000000000000,-0.004087325780172165700000000000000,-0.02332144822659435200000000000000,1.104924959642178800000000000000,-0.01459504484193228400000000000000,0.02555778224253446600000000000000,-0.0459545698509956700000000000000,-0.02252825005174872600000000000000,-0.13391350808405700000000000000,-0.09462404100323461300000000000000,-0.004899447304000333100000000000000,-0.0096454620012721200000000000000,-0.009213529259921625700000000000000,-0.07862605429856155100000000000000,-0.03756329001751987400000000000000,-0.03898571958211829300000000000000,-0.05696854799503312700000000000000,-0.02162694700712855200000000000000,0.07232367276513805600000000000000,-0.05387141732448674100000000000000,-0.003355522323972912800000000000000,0.003242583400913942900000000000000,-0.006395204178598043300000000000000,0.1282565117417775200000000000000,0.006239608313399141500000000000000,0.118027158889877900000000000000,-0.02189730353597868500000000000000,0.1027089728187559500000000000000,-0.05075449538791715300000000000000,-0.06712111747837443100000000000000,0.06751835246376176900000000000000,0.02827956823587824200000000000000,-0.00328317882119620600000000000000,0.09152540815593651600000000000000,-0.03968893893173187200000000000000,0.02067490411529082300000000000000,0.06995628850850760200000000000000,0.125712651084975200000000000000,0.07396033063285520300000000000000,0.08913229330840535800000000000000,0.05436248167286795300000000000000,-0.06092927814781623500000000000000,0.1179170823529793300000000000000,-0.05534819642680004900000000000000,0.0008742452176918372700000000000000,0.127989858527262800000000000000,-0.04366461471546510100000000000000,-0.06546230960687633700000000000000,-0.05353601079756135200000000000000,0.04440431773925454500000000000000,0.04440536222927925200000000000000,0.06053783680768742200000000000000,0.08523186346772972100000000000000,0.007887737942565869700000000000000,0.01701195910380375700000000000000,-0.06383405745049683400000000000000,0.121123133168786800000000000000,-0.02715286995901897500000000000000,0.1130398462654821500000000000000,0.04003383703742396900000000000000,0.1335545715513830600000000000000,0.05649410179193937300000000000000,0.01505596397160693400000000000000,0.1206838980873686200000000000000,-0.01334670364782474500000000000000,0.03501450252966463500000000000000,-0.01315573494213126100000000000000,0.1103123019736848600000000000000,0.01506547262836443300000000000000,0.01323827638943524300000000000000,0.08889080454061171200000000000000,0.001877206585063950800000000000000,0.01515963462630975600000000000000,-0.02541255399075097500000000000000,-0.04596511944238013100000000000000,0.04833111174513297200000000000000,0.07461159094497697700000000000000,0.01704582532162819300000000000000,0.1038423823731377700000000000000,-0.06253589195647477100000000000000,0.07149925553474771600000000000000,-0.01799890292282408900000000000000,0.08770795180023770200000000000000,0.1007483885352229700000000000000,-0.02674073282827539200000000000000,0.0819198148971461700000000000000,0.02492409659059582900000000000000,0.01139177394968785700000000000000,-0.03267906756316307800000000000000,0.03264434903054703300000000000000,0.0317182650876053700000000000000,0.02802930520425304600000000000000,-0.04489386669224443300000000000000,0.09783003175345636500000000000000,0.114398023803721300000000000000,0.0405785839575644600000000000000,0.03975485885599509800000000000000,-0.05002724574413743700000000000000,0.009981015158541878600000000000000,0.07420457886402097300000000000000,-0.06098741513283371900000000000000,-0.04371562059341835300000000000000,-0.04550873698888014500000000000000,0.1074309971766502800000000000000,-0.04438890056696594100000000000000,-0.006074703458019317700000000000000,0.0622427777488991500000000000000,0.06134506428058805700000000000000,0.03440397499768598600000000000000,0.001559552961978558100000000000000,0.09498835881292901100000000000000,0.0160796983093384300000000000000,-0.06003379034355836600000000000000,-0.02586191838338411700000000000000,0.1041225833936131500000000000000,0.009368050630628992800000000000000,0.0830646465726066900000000000000,0.005765248079048240800000000000000,0.1259279353945433900000000000000,0.07545327359108032500000000000000,0.03025086763184226700000000000000,0.08831575376709908900000000000000,0.01207313403080812400000000000000,0.07985421915533934300000000000000,0.02526824365346697100000000000000,0.07059610679560107700000000000000,-0.02464801801428251700000000000000,0.005348885238873550600000000000000,-0.04484037116356225100000000000000,0.08574314299443974700000000000000,-0.06633652087878187700000000000000,0.04663456370364284900000000000000,0.09152312520377664500000000000000,0.05231470618582782100000000000000,0.03179371026792976500000000000000,-0.030613957965597200000000000000,0.03862350818887182200000000000000,-0.04474881474797209200000000000000,0.02309555456865115500000000000000,0.08976203401979426800000000000000,0.01910478768162026900000000000000,0.1131851645848877400000000000000,0.09248474230702609400000000000000,0.1313583268158121100000000000000,0.129135893832746100000000000000,-0.06137477151339385700000000000000,0.001339840444905857700000000000000,0.1147898343130950200000000000000,0.09370828868067299100000000000000,-0.00345306323595155400000000000000,-0.06392871954900575200000000000000,0.1371128024683311300000000000000,-0.04634292988035906800000000000000,0.0682639056058034900000000000000,-0.05855520002437935400000000000000,-0.00315211960007180400000000000000,0.01551455188938504300000000000000,0.0268354894598521400000000000000,0.1197957849051132400000000000000,0.1208292261688335100000000000000,0.09561225831338623900000000000000,0.0297069100969597800000000000000,0.07756121196205514900000000000000,-0.05035618597819996300000000000000,-0.01065482197432412500000000000000,0.03555349472867483400000000000000,0.0005513352528886169700000000000000,0.03730626934133592100000000000000,-0.002447177890563016200000000000000,-0.04893718352822975400000000000000,0.0388912769129041300000000000000,0.02156564483180379100000000000000,0.04045052416350462800000000000000,0.01378043431732245800000000000000,-0.01707954801319848400000000000000,0.1211767097797863100000000000000,-0.009114230917137554300000000000000,0.1179118348377703700000000000000,0.1114969792157139600000000000000,0.1164523433515953200000000000000,-0.04214177961181615100000000000000,0.08860275053706245800000000000000,-0.006430214765084936400000000000000,0.06894264953271934900000000000000,-0.04839050509528234500000000000000,0.01133776769081864700000000000000,0.1247010271188358800000000000000,0.1373304398272816900000000000000,0.06170105142218809700000000000000,0.0229289213649204600000000000000,-0.02050487277304643300000000000000,-0.05527844797977723300000000000000,-0.02084917225343095900000000000000,0.06976826377463324300000000000000,-0.03884509933721507600000000000000,0.05475146928922908900000000000000,-0.005918748287565996800000000000000,0.04017341289378081200000000000000,0.02999309247045189900000000000000,0.01158932708555515300000000000000,0.09975214725766237700000000000000,-0.02322322073716273300000000000000,0.09114691488162779400000000000000,0.1011007446418203900000000000000,0.1348781565903535200000000000000,-0.0249217488736433700000000000000,0.1238108941683822400000000000000,0.08866424821684908100000000000000,-0.005301310516053336400000000000000,0.07474248177137977900000000000000,0.1324524922914685500000000000000,0.09039425700652065100000000000000,0.04285280290642120400000000000000,-0.05028632906308098900000000000000,0.1016298857684007200000000000000,0.03357302467338849100000000000000,-0.04561822211016396100000000000000,0.1032858485041785200000000000000,0.0355451328355006900000000000000,0.06309864504030679400000000000000,0.1222038228164127700000000000000,-0.02541055307536046700000000000000,0.06373901431754437600000000000000,-0.05047590029098129200000000000000,0.05714926359788446300000000000000,0.06267527200842733200000000000000,0.09380310750467005200000000000000,0.05566004761477998800000000000000,0.1139232069907114100000000000000,0.07433851504381536200000000000000,-0.007191755836980473800000000000000,0.1173676273006358100000000000000,-0.02671003780078727200000000000000,0.002127401809058941500000000000000,-0.02140996933464003500000000000000,-0.00485042366160141300000000000000,0.0123380893071942700000000000000,0.1386351181803308900000000000000,0.001624237446142315700000000000000,0.0527240668251133600000000000000,-0.006062245103580063800000000000000,0.1332066597791552500000000000000,-0.0003602939104764585200000000000000,0.1187341360488020100000000000000,0.006431525756930412900000000000000,0.0979176870723965500000000000000,0.005540784163494479200000000000000,0.08794283239619668500000000000000,0.08509863339428257200000000000000,0.06796954663631407700000000000000,-0.009905171637764033400000000000000,0.1182058115102185300000000000000,0.04639527453893460600000000000000,0.02417275573981557100000000000000,0.0205218762412596700000000000000,0.07916934775950690300000000000000,-0.03354043308301673400000000000000,-0.01772643591416757400000000000000,0.01667291745314725800000000000000,0.009527163146079936300000000000000,0.03489969005809772500000000000000,-0.04325003375580736800000000000000,0.08544232536268651900000000000000,0.03838076610313763400000000000000,0.01535520312077887800000000000000,0.1041345763671734600000000000000,0.1149829354579148900000000000000,0.1274620415159032900000000000000,0.04372372426106531400000000000000,0.05313494403010147300000000000000,0.01000711182256318700000000000000,0.09035277058130228300000000000000,-0.004250678463042766400000000000000,0.126904963133142400000000000000,0.04943705989130259300000000000000,0.04487576988593041500000000000000,-0.04507928003542999200000000000000,0.06461479291240146400000000000000,-0.05270756566141896600000000000000,-0.04524456427506864900000000000000,0.0120091376288174700000000000000,-0.05241814104175569100000000000000,0.09867307757324350600000000000000,0.01740999166993794900000000000000,0.1274131594877873600000000000000,0.1372058894664745800000000000000,-0.008540921587538547300000000000000,-0.04689544122021981800000000000000,0.08788785981424980500000000000000,0.130073382869806600000000000000,0.06553039594866311200000000000000,-0.04704857539791563300000000000000,0.08830977624371061400000000000000,0.1372658479292406300000000000000,0.0003325029384667254800000000000000,0.1408142641234476900000000000000,-0.02958644807710423700000000000000,0.09346869251812581200000000000000,0.1122576267271347400000000000000,0.1062325735776776800000000000000,0.04924005559982185700000000000000,0.1024559019023184400000000000000,0.04308099252667946200000000000000,-0.03578095993984632700000000000000,-0.04119676380212410800000000000000,0.02534060791253726200000000000000,0.02068608265000796600000000000000,0.09826427808698703900000000000000,0.04797704458198679600000000000000,0.01735354913857844700000000000000,0.07297868421736705700000000000000,0.04268600664947613800000000000000,-0.04166873852630410100000000000000,0.1200145574182653200000000000000,0.07722895655760356200000000000000,0.0609238319332064200000000000000,0.1145836277568778300000000000000,0.1143427501778761700000000000000,0.02477875520237517200000000000000,0.07550565831054627300000000000000,-0.04075956758929817600000000000000,0.1418737724470157700000000000000,-0.01666517859969984500000000000000,0.1064972572364577300000000000000,0.06287151396799471600000000000000,0.09936290153244176100000000000000,0.1377048242195586500000000000000,0.0740840822123675500000000000000,-0.05931583468869803400000000000000,0.1136292205771473200000000000000,-0.009617942464762760400000000000000,0.1221859430705213300000000000000,0.1070927288537174800000000000000,0.1026939280650044100000000000000,0.102902165512145300000000000000,0.1187873206643069200000000000000,-0.0003963551856092425800000000000000,0.1295467432853127100000000000000,0.05989021204099299900000000000000,0.0896665756887168600000000000000,0.1028643471840614600000000000000,-0.04530981532247255200000000000000,0.03614546383513420100000000000000,0.04122287202492537500000000000000,0.1045655511086823500000000000000,0.09384697224387895900000000000000,0.04878256982691818500000000000000,0.1295599359750244700000000000000,0.01399429502950764100000000000000,-0.01324586080910707600000000000000,0.07543632720907307600000000000000,0.03100188586044010800000000000000,0.07488396032094701800000000000000,-0.01608970971812548300000000000000,0.119442406842298700000000000000,0.07112633254583085300000000000000,0.003660444268376008600000000000000,-0.04315337117433535500000000000000,0.003831188099863599300000000000000,-0.03197792516507507600000000000000,-0.01570803400359519600000000000000,0.03857607957011558600000000000000,-0.02510357807792244800000000000000,-0.05344032132727451200000000000000,-0.04906349640313011100000000000000,0.1004529487147845800000000000000,0.0969304911697541900000000000000,0.07928647782215232600000000000000,-0.01004490471524239500000000000000,0.07140237326784866500000000000000,0.1190269286593077700000000000000,0.01072143191719387800000000000000,-0.007890917108945683100000000000000,0.1062840250066220800000000000000,-0.004396445761700171400000000000000,0.1210898500099800200000000000000,-0.01355463520097179700000000000000,0.1089915057629015200000000000000,0.1416179611931779900000000000000,0.0855714854700345700000000000000,0.08714430704384658300000000000000,0.01713994434145100400000000000000,0.003674482503019800500000000000000,0.08589023594433714500000000000000,0.0844789816092338800000000000000,-0.04582939086444727500000000000000,0.02861021511053503700000000000000,0.0296720400065977300000000000000,0.01108403187760660800000000000000,0.05550840982517314700000000000000,0.01047037891168032400000000000000,0.03453791828826346200000000000000,0.1149865715377490800000000000000,0.07443960486952017100000000000000,0.09721858620373427500000000000000,0.1328017159592835800000000000000,-0.02958928383741459300000000000000,-0.02540594246059294300000000000000,0.03860847824527670300000000000000,0.05312808461219144200000000000000,-0.04212342469583538200000000000000,0.01507598092316501800000000000000,-0.04389803744976133300000000000000,0.03543136675728889700000000000000,0.04451325505918881500000000000000,0.1339688331140874700000000000000,0.01656569572473736600000000000000,0.1351713586664839700000000000000,0.09610278919140791100000000000000,0.137503323414786300000000000000,0.09048337299819715600000000000000,-0.02668578954939691800000000000000,0.05203161952272782100000000000000,0.1002133765903429900000000000000,-0.02364348107132623400000000000000,-0.01156792285173433900000000000000,-0.005619840853135247400000000000000,0.08261624061816032200000000000000,0.07229441543842410300000000000000,-0.05311073957906468200000000000000,0.04232241404459836200000000000000,-0.02699414644904284500000000000000,0.0761720399765981600000000000000,-0.03274504643102753300000000000000,0.1032782670598577900000000000000,-0.04101777258323840300000000000000,-0.004558937683780156500000000000000,0.0159661427804514700000000000000,0.01183206543901399800000000000000,0.03568357094940297800000000000000,0.04810426132262883600000000000000,0.1293414912827833300000000000000,0.08794321648939815200000000000000,0.05617058547271264900000000000000,0.1358646880414010600000000000000,0.1192312684962934900000000000000,0.04546330787454368900000000000000,0.1310944110784767500000000000000,0.07071625552635102400000000000000,0.01787818692639464200000000000000,0.08224065970742276700000000000000,0.08301107507899396800000000000000,0.03665427025804489400000000000000,0.01868002757300755300000000000000,0.08313027124727749600000000000000,-0.03762724186631226400000000000000,0.06682322913332455800000000000000,-0.03136281995590633300000000000000,-0.03257997707880997500000000000000,0.1309015289852106800000000000000,0.01845236151976597700000000000000,-0.03077153782446142800000000000000,0.1110831340805092500000000000000,0.1187664590830749100000000000000,0.02600958869491630200000000000000,-0.05822644572375898500000000000000,0.07626915599992063800000000000000,-0.03796691086217501100000000000000,0.1142902168058176500000000000000,0.1132236270472487400000000000000,-0.02175895796184199400000000000000,0.02623721015232555200000000000000,-0.0475866140269639300000000000000,0.07913224836758360500000000000000,0.1218163438289959100000000000000,0.02267607639279305500000000000000,0.03007230856258270500000000000000,-0.000153205099627098300000000000000,0.03773981216011714600000000000000,0.02338169708236493800000000000000,0.03736236828992642300000000000000,-0.01397816186347968500000000000000,-0.04870604429115420200000000000000,-0.01860502853831642200000000000000,0.1294066910432213600000000000000,0.02983120747123905700000000000000,0.01321597836423588400000000000000,-0.03787191287193015400000000000000,0.05688650383958281800000000000000,0.1383303871140130500000000000000,0.1251268150032105500000000000000,-0.007567559270331862500000000000000,0.04390568959876570800000000000000,0.02475352778899567500000000000000,0.09020676583453955700000000000000,0.1335114039052379400000000000000,-0.005604895546616683700000000000000,0.01452639740763147400000000000000,0.1205537828573623900000000000000,0.08385717610386682300000000000000,0.1082210214033895600000000000000,0.1217254602153223100000000000000,0.03244991345356096300000000000000,0.1185055399606755500000000000000,0.08832626530759699100000000000000,-0.04725211334155752400000000000000,-0.03934532167611743500000000000000,0.0709502665307151500000000000000,0.02018183679621850200000000000000,-0.00704021410371240100000000000000,0.1232994116401141300000000000000,-0.03619940321737757200000000000000,0.1047059065895739500000000000000,0.1329422238524067800000000000000,0.068200844504325800000000000000,-0.005405388778559325200000000000000,0.1259210431955161100000000000000,-0.009649753026993996100000000000000,0.1321495900096968700000000000000,0.08284825157069622400000000000000,0.03474836570939687800000000000000,0.08390304977503827700000000000000,-0.05550503457726063700000000000000,0.0847310471954630800000000000000,0.1300382590157621900000000000000,0.01529437216079421500000000000000,0.106103051994500900000000000000,0.0819584955555196500000000000000,0.01529503860816577500000000000000,0.1150919139377025700000000000000,0.06863000639519795100000000000000,0.05353420508828953700000000000000,0.03438474736860427200000000000000,0.1198525032454035400000000000000,-0.01572389947370591800000000000000,0.1099342619396560400000000000000,0.08300799413219897600000000000000,0.08106325011512011100000000000000,0.04609689574868659800000000000000,0.09206552638962489700000000000000,0.07824175674702624200000000000000,0.002151206640366882500000000000000,0.04574425152721097600000000000000,0.1461892549352661300000000000000,-0.04652128920513529800000000000000,0.04549653546011452100000000000000,-0.0582812038851578600000000000000,0.03040610591702576400000000000000,-0.02136923274605780400000000000000,0.08198961343091955300000000000000,-0.02310491480438490300000000000000,-0.04182607520063764300000000000000,-0.01241750947504482500000000000000,0.09401667985659219200000000000000,0.05364898217373880600000000000000,-0.02061177581804767400000000000000,0.1253997777877578500000000000000,0.03468568443405436300000000000000,0.1199645033537712900000000000000,0.07084542575902748300000000000000,0.02121682188141255800000000000000,0.06977715040592379100000000000000,0.1138100870147413200000000000000,0.1259256823729923100000000000000,-0.0692180888080485700000000000000,-0.04567200425332691700000000000000,0.09522860514157777100000000000000,0.04230980715207614100000000000000,0.08995110586010765500000000000000,0.07085513354895295300000000000000,-0.004731799543006090700000000000000,0.09013383289410802100000000000000,-0.0009823042083334106700000000000000,0.08465484960853401900000000000000,0.01750921718679165600000000000000,-0.03946842829387466800000000000000,-0.02062836637354368800000000000000,-0.04921796657970335700000000000000,0.04125801510484438500000000000000,0.08188796947835427800000000000000,0.04640832985764344100000000000000,0.01754286319077968300000000000000,-0.06351706413233056100000000000000,-0.0006890636060150721800000000000000,0.0002938003608541190900000000000000,0.08149967534989736900000000000000,0.02414883673777458100000000000000,0.1193928839086351900000000000000,0.01264438991798172800000000000000,-0.04934753358719418100000000000000,0.01068979970679326300000000000000,0.03100676771425595100000000000000,0.09268996602814047500000000000000,-0.02783211047379276200000000000000,0.030059588716979200000000000000,0.1042698879624112400000000000000,0.1123938849119838400000000000000,0.0811178988458746700000000000000,-0.07639746620492378300000000000000,-0.02265055294503245600000000000000,-0.02654297868468213200000000000000,0.02586898626057347300000000000000,-0.01183221938091693500000000000000,0.03468024150654108700000000000000,-0.004511800802369849200000000000000,0.1260181211158655200000000000000,-0.07424954278690350200000000000000,0.0850693682425365800000000000000,0.1092348873100736500000000000000,0.02154608867794931600000000000000,0.02397497499720498500000000000000,-0.05616538633977421300000000000000,-0.06768625929223379100000000000000,-0.0340096242282261900000000000000,0.1002173019655298700000000000000,0.1270494899813905100000000000000,0.1137421530732190100000000000000,0.1219488107625541500000000000000,0.03885919366895481500000000000000,-0.03709961561760895900000000000000,0.02340734054978951800000000000000,0.01544835137077903800000000000000,0.05487600380670487600000000000000,0.1274708996018418500000000000000,-0.02894359930553346400000000000000,0.004352143672949261600000000000000,0.1137050607396836600000000000000,0.109745638643248200000000000000,0.03526076790498492600000000000000,0.1168816334464154300000000000000,0.03852267847184311100000000000000,0.01348912490678925800000000000000,0.08253765955110926900000000000000,0.1182713574606510200000000000000,-0.06216119657513068100000000000000,0.0016939776587037100000000000000,0.05987458114688157900000000000000,-0.03994888976185356100000000000000,0.08198487129161148600000000000000,-0.009907352623249649300000000000000,-0.0600944894072980500000000000000,0.06797495721632260100000000000000,0.06270812780221521300000000000000,0.09446038275810061900000000000000,0.0008444148547394380100000000000000,0.0273634483268633200000000000000,-0.03514936629404632300000000000000,0.04139157858413932600000000000000,0.02277211364023895600000000000000,0.118548238247588200000000000000,-0.01844361887548727500000000000000,0.04470883126845989800000000000000,0.08193936241530100400000000000000,0.06256253207372802800000000000000,0.006675722286797822700000000000000,-0.04330536986953386500000000000000,0.1216958943946206500000000000000,0.02879027936768388500000000000000,0.03193167713299817400000000000000,-0.0009234272190862565100000000000000,-0.01571645720942008200000000000000,0.06579950032001477500000000000000,0.08350059063175416200000000000000,0.08079958204579014400000000000000,0.08457347932921414900000000000000,0.007442537883444288100000000000000,0.1262294001475306700000000000000,0.007167838818360795100000000000000,0.004325499266796491200000000000000,0.01298655736703025300000000000000,0.06941516668814008700000000000000,-0.01025380733794204800000000000000,-0.009104837923862111100000000000000,-0.003945697490046762500000000000000,0.1039834511919587300000000000000,-0.04050505049572505900000000000000,0.04072339327475567300000000000000,0.1002604761323393400000000000000,0.1022363734365035100000000000000,0.09217347166776769500000000000000,-0.05179435476772627200000000000000,0.07549652820410364400000000000000,0.111745151916431100000000000000,0.05114706914469677900000000000000,0.003038680815057352100000000000000,0.1135898273947610600000000000000,0.07524531151542034100000000000000,-0.04592158337238084300000000000000,0.114679088647992100000000000000,-0.002321263102415292900000000000000,0.006347096563019263100000000000000,-0.03057921955179717200000000000000,0.04767356018680267400000000000000,0.1226238031547715900000000000000,-0.04630021505993759500000000000000,-0.05029178931155454900000000000000,-0.05250951921697435300000000000000,0.04225975954884238900000000000000,-0.01570340904537411200000000000000,0.007036482245649058500000000000000,0.0384685515603833200000000000000,0.1002185965970584800000000000000,0.1167325749390690200000000000000,0.03753106905586860900000000000000,0.07579444213229553900000000000000,-0.000673797574029327500000000000000,0.03644112641745205600000000000000,0.1008633160737677800000000000000,0.03185313541466282300000000000000,0.06776588008883514800000000000000,0.1239865244479778600000000000000,0.06125242597336297300000000000000,-0.001409797005965083200000000000000,0.07642332673199128700000000000000,0.02668439215580648700000000000000,-0.004363319831055907300000000000000,-0.01271892084634301100000000000000,-0.03518759590773908700000000000000,0.1067596772464956100000000000000,-0.0238049217247132300000000000000,0.006856361280205701600000000000000,0.1313364477735307600000000000000,-0.004742053088267967100000000000000,0.1324129331528538800000000000000,0.101701869993593800000000000000,0.04403229628949634200000000000000,-0.01584347678640735100000000000000,-0.0001084485539327490800000000000000,0.1309936091395460200000000000000,0.02873828148804299600000000000000,0.08774627327276729400000000000000,0.06164512759362852200000000000000,-0.03042570866553286400000000000000,-0.009961866734214890100000000000000,0.1041326169641552300000000000000,0.0877876961949766300000000000000,0.1132754170838921700000000000000,0.1220234836349169400000000000000,0.1085542948088411600000000000000,-0.01879516992578569500000000000000,-0.03205248448367587600000000000000,-0.03578225459475688900000000000000,0.1097494085099568500000000000000,0.1336182912147336800000000000000,0.005485114568466210900000000000000,0.06020324024907135900000000000000,0.1000161791981250100000000000000,-0.0002805376414193772800000000000000,0.06646722544766293900000000000000,-0.02632953899207440800000000000000,0.03100982720621513500000000000000,0.09520930314949113700000000000000,-0.008317089389516573200000000000000,0.1197112502165745300000000000000,-0.05375657167023622400000000000000,0.1245109634946425200000000000000,0.06306864058105933500000000000000,-0.03398412489768284200000000000000,0.001134121246472223400000000000000,0.04523633867361582400000000000000,0.03608349565943919800000000000000,0.06171220835629372100000000000000,0.002446742133315138500000000000000,-0.02497673550765324200000000000000,0.04390625865375302700000000000000,0.04886093214318935900000000000000,-0.001891467832062558800000000000000,-0.05287760935060125500000000000000,-0.04442431584435454400000000000000,0.1139215890458161300000000000000,-0.05144626700594671900000000000000,0.02120047852944049700000000000000,0.0686253956426559900000000000000,0.03443563672185412400000000000000,0.01109437633028029400000000000000,-0.04434317846542444600000000000000,0.1176490579036738600000000000000,0.07788880488221643100000000000000,0.06834882527457518400000000000000,-0.05313609271857268300000000000000,0.08052594448248952300000000000000,0.1089605644874882300000000000000,0.03189332128886690500000000000000,0.04302893265171395900000000000000,-0.03727464267640440100000000000000,-0.03918779759649552300000000000000,-0.04681034659728942900000000000000,-0.06236339355542294700000000000000,0.04169183388630589400000000000000,0.02748895011490357800000000000000,0.07130761018167715300000000000000,-0.05050890227790787200000000000000,-0.04793176295156115200000000000000,0.1328468042093810800000000000000,0.0310426891979295600000000000000,0.09482759083220643200000000000000,0.09315626496538398400000000000000,0.0331646293584839100000000000000,0.0003737613808172643500000000000000,0.05907084538129199500000000000000,-0.05979060901799657100000000000000,0.008796147477963051800000000000000,0.1203460960385088200000000000000,-0.02693832887796532600000000000000,-0.05993481311347963900000000000000,0.1018837428658101900000000000000,0.01710532328009389500000000000000,0.0006527026290979065900000000000000,-0.02705686312665945800000000000000,0.05558886163559539900000000000000,0.008913962787852289600000000000000,0.04409326794437146100000000000000,0.06176331017334512500000000000000,0.111904242931793500000000000000,-0.0623862261275355200000000000000,-0.02671092471743057700000000000000,0.1096417314424649900000000000000,0.1238297248634751800000000000000,0.05777720566449125900000000000000,0.08477477106554243100000000000000,-0.05288833134101406800000000000000,-0.06182499667974174900000000000000,0.1126646705457166700000000000000,-0.002548566033623428600000000000000,0.07095687113163139100000000000000,0.105238409613342400000000000000,0.0302210985798032700000000000000,0.09052395231166182600000000000000,-0.04561644295361688700000000000000,0.07200912400184014700000000000000,-0.03107868138781732400000000000000,0.09055192181812209100000000000000,0.1116448698656701400000000000000,0.1144270619537898200000000000000,-0.05448920382659139900000000000000,0.1134464220679771800000000000000,-0.003343891242019680200000000000000,-0.03440720414613254700000000000000,-0.02442807440589244900000000000000,-0.03226429590750135700000000000000,0.1181447215665813700000000000000,-0.004063441382845394400000000000000,-0.04195373655165375600000000000000,0.02564205049874672100000000000000,0.0518453198180346200000000000000,0.1015198252188199100000000000000,0.03560382578644752400000000000000,0.06783530528216358300000000000000,0.1312393502515959400000000000000,-0.0434436225765028400000000000000,0.06101507830598330200000000000000,0.00778908762852750700000000000000,0.09798093334474837500000000000000,-0.01272685242297064100000000000000,0.1021653067500203200000000000000,0.1037072349690531500000000000000,0.09361290004485205200000000000000,0.1219976847047257200000000000000,0.01543136958396956600000000000000,-0.03821204633420264400000000000000,0.07316945652416020900000000000000,0.07482677858221793700000000000000,0.02012531605607127700000000000000,-0.06124049090685461400000000000000,0.02268777180751062700000000000000,0.01892937003753918400000000000000,0.1040967587999524500000000000000,0.04972129173972997900000000000000,0.06101804343614818100000000000000,0.005158284206017729700000000000000,-0.00756854997824583500000000000000,-0.01291472100375509700000000000000,0.008125493554066573100000000000000,-0.0173951662108904200000000000000,0.1103578321713752100000000000000,-0.04314565758065413300000000000000,0.1004114811886995400000000000000,-0.02218208252514208500000000000000,0.07133285356033468300000000000000,-0.06055916161665517200000000000000,0.03461662261192390700000000000000,0.08799182272694465500000000000000,0.1220067161145481100000000000000,0.07981167670560934700000000000000,0.02113133905097104900000000000000,0.04526227908617918400000000000000,0.07499758035089193500000000000000,0.01421728708114296800000000000000,0.02923789194423745400000000000000,0.007557070644064433700000000000000,-0.03951504923754353700000000000000,0.03992882829625350700000000000000,0.1035329421222252200000000000000,0.1328232094932295700000000000000,0.1288536972972534600000000000000,0.1329702180632670300000000000000,-0.06538703799383073500000000000000,-0.007130642538562084200000000000000,0.03432486762061864900000000000000,0.1217106362337792200000000000000,-0.03591818612560981200000000000000,-0.01725796956926963600000000000000,0.03191257441996537400000000000000,0.02130225103741956200000000000000,0.006029850466353479900000000000000,-0.01812937205516716700000000000000,0.01834866186618560100000000000000,0.03590858732522854400000000000000,0.06522650280538826200000000000000,0.02394187425019415200000000000000,0.04825917704452346900000000000000,0.034675869450319100000000000000,-0.06562957742037897600000000000000,0.03069376271677099600000000000000,-0.04256840581458538900000000000000,0.007808485762479367400000000000000,0.05073212279013241500000000000000,-0.03336808059078857900000000000000,0.1234244708638963700000000000000,0.1090546566400062300000000000000,-0.006212863208445248800000000000000,0.0707874821655435500000000000000,-0.004363803535493043400000000000000,-0.009432425594437961900000000000000,0.1056203939622348300000000000000,0.1215497383287600400000000000000,0.1256805614480992200000000000000,0.03679616684462732500000000000000,0.0141704065108702900000000000000,-0.009061400830880004400000000000000,0.1296547887020036700000000000000,0.003368955297155353100000000000000,-0.05832164977191430600000000000000,0.04470975097864447100000000000000,0.1127235596970286400000000000000,0.06729483733125908600000000000000,-0.02097756740387830800000000000000,0.04422208888097125400000000000000,-0.01168045248535160500000000000000,-0.00515300908051518400000000000000,0.007321585169268941100000000000000,0.106784410084651500000000000000,0.02286299120868283100000000000000,0.03296943366387791700000000000000,0.04804918641421487100000000000000,-0.0198880557716631900000000000000,0.03624224145495513100000000000000,0.03123088714787884300000000000000,0.1229576866160997200000000000000,-0.01222815541942334800000000000000,-0.008534646846678697500000000000000,-0.0002621503638063036100000000000000,0.004869750552174404200000000000000,0.1014263071071832600000000000000,0.002504239253010773500000000000000,0.009730603581895591600000000000000,-0.05902991397139574500000000000000,0.09638617027444197600000000000000,0.09266594515755396900000000000000,0.04303925244802958600000000000000,0.1295840961799154500000000000000,0.04649377965865170900000000000000,-0.0649004012654905700000000000000,0.09670833095114697600000000000000,0.03124266496029815700000000000000,0.1148031844172808400000000000000,0.1054754999732525800000000000000,-0.05134630064751755800000000000000,0.09666812215206541100000000000000,0.09615583627594413700000000000000,0.07950166156539219300000000000000,0.09124771522489660800000000000000,-0.008977865246428698400000000000000,0.06800124791956516100000000000000,0.105264160224751100000000000000,0.03847492531970581100000000000000,0.0975151478970511800000000000000,0.005785691505718983100000000000000,-0.01732510380809116100000000000000,0.1132219756168049200000000000000,-0.01986480202698336100000000000000,0.1186866906428429400000000000000,0.08032408160070186900000000000000,0.1212236032990322800000000000000,-0.0119961758258240700000000000000,-0.0374406422302810400000000000000,0.02196487036852378500000000000000,0.01688733394263138400000000000000,0.08128508545651545700000000000000,0.08645213176544047600000000000000,-0.02696140377740889600000000000000,-0.03136134163674712800000000000000,0.0611757789182879800000000000000,0.06748787144759772800000000000000,-0.04108701682114836900000000000000,0.1289443150569579100000000000000,0.08466617213515580100000000000000,0.09279326421457209700000000000000,-0.05376183808100360600000000000000,0.1158269107323350300000000000000,0.04480084438125363200000000000000,-0.0577686031252868100000000000000,0.1180123219818455800000000000000,0.111994561745294300000000000000,0.09863149475240430600000000000000,0.1302592943421265500000000000000,0.07452219819622431200000000000000,-0.01253913816542855500000000000000,0.1237440236076065800000000000000,0.06131570669723285900000000000000,-0.009543719534264805100000000000000,-0.04725371585234427300000000000000,-0.01579217461608244500000000000000,-0.04306190809746803700000000000000,0.06042074758272537200000000000000,-0.05201114706597095200000000000000,-0.01220968730606708900000000000000,0.008880672068080899500000000000000,0.06310114508130622300000000000000,0.07491926355042870200000000000000,0.01541455388350069500000000000000,0.1160213910701229600000000000000,-0.02396041182972397800000000000000,0.07740068879969558300000000000000,0.1040142618594412500000000000000,0.06051242660686389400000000000000,0.07222064319015759900000000000000,-0.02266244463512133800000000000000,-0.03558982681530146300000000000000,0.07967823731733542100000000000000,0.0292723126548511300000000000000,0.07169647525059030800000000000000,0.01478641864677302300000000000000,0.08992985931769867400000000000000,0.08284931014021459900000000000000,-0.002866571580070366400000000000000,0.01196952481003641900000000000000,0.118661621886402700000000000000,-0.04436962700503733300000000000000,0.06858414840028072300000000000000,0.0607232940678081800000000000000,0.0009991836710450689600000000000000,-0.007198424114153184400000000000000,-0.002158986566858736900000000000000,0.08316833668671928800000000000000,0.09690249123140005900000000000000,0.03529009970602476500000000000000,-0.001617504064121860500000000000000,0.1288862989472368800000000000000,0.08517612845634371700000000000000,0.06244798569296770200000000000000,-0.01694321367573764200000000000000,0.007812832219336885900000000000000,-0.008649883897481471700000000000000,-0.06519413223384168400000000000000,0.06040702308002933500000000000000,0.0259433764516919800000000000000,0.1046319098252366700000000000000,0.06942402168359906900000000000000,0.03150662306876932800000000000000,0.1051926055882610200000000000000,-0.06846612369598047100000000000000,-0.02050071641598048100000000000000,0.1235138438002093600000000000000,0.07296463484666580700000000000000,0.08676943463520066200000000000000,0.08779720874198872200000000000000,-0.02802053694576395500000000000000,0.007914372619001320100000000000000,-0.007257912857120019100000000000000,0.02702199739836014600000000000000,0.05355323832096594400000000000000,-0.04667246443549125100000000000000,0.1127785231885342400000000000000,0.09160762955190329700000000000000,-0.01910230236184742200000000000000,0.05142313907401974800000000000000,0.06928622462285434500000000000000,-0.00753808489396665200000000000000,-0.01989042819471567200000000000000,0.07752384356486660700000000000000,0.08005075843649087100000000000000,-0.04468148389009739300000000000000,0.03937737718103689200000000000000,-0.02167631272129158500000000000000,0.07372987503428121700000000000000,-0.006107750675613549800000000000000,0.0512612552110800900000000000000,-0.04615926395487262400000000000000,-0.06527343180135916600000000000000,-0.04479926649653787800000000000000,0.01471422944142020300000000000000,0.01165726126954600600000000000000,0.1043452281544342300000000000000,0.115630077877220700000000000000,0.01811448567173883100000000000000,0.06209312753060179700000000000000,0.01639565024007727500000000000000,0.04485371222615221200000000000000,0.05732264936345266700000000000000,-0.0153548346211947100000000000000,-0.04501258099807258600000000000000,0.02149172969467031900000000000000,0.004551840025913957300000000000000,0.1372564785422657500000000000000,0.02132554543980789300000000000000,0.117449311995046200000000000000,0.01723640859049536300000000000000,0.03112300948245029500000000000000,0.03287421559691790200000000000000,0.1269007115773135900000000000000,0.07334297048224559800000000000000,-0.05229075584291959600000000000000,-0.002024012041243990400000000000000,-0.0339925248798623600000000000000,0.1006491345285281300000000000000,-0.02260958452686901900000000000000,-0.07478167475510899600000000000000,0.07114694995644860200000000000000,0.1040973215818776900000000000000,0.06172239098235127900000000000000,0.02092477353271608400000000000000,0.03030235458650700600000000000000,-0.001543593298313405900000000000000,0.1204151148271282600000000000000,0.03313970870943070600000000000000,-0.02346080504724617300000000000000,-0.04760730499354484700000000000000,0.0445822994760508300000000000000,-0.002310980340697843400000000000000,-0.02425931596761941500000000000000,-0.0501560058714757700000000000000,0.03731546581556167300000000000000,-0.05854795567396643700000000000000,-0.06007364271897303700000000000000,-0.02461159271476363900000000000000,0.08179587090840449700000000000000,0.001280479903052791800000000000000,0.09709367915396971400000000000000,-0.06978351467344524900000000000000,0.02084495915494976100000000000000,0.1127004674778080400000000000000,-0.05098825589021935300000000000000,0.08293806966361365300000000000000,0.02616742099635815900000000000000,-0.07354184973093899600000000000000,-0.05225369465016901900000000000000,-0.03514656642934580600000000000000,-0.05996432042951985900000000000000,0.1072560106437471500000000000000,0.02352617839750728900000000000000,0.1128158368769552100000000000000,0.0710746221518775700000000000000,0.0726196333265386600000000000000,-0.006882913727899362400000000000000,-0.03272135237720454800000000000000,0.1243871218019006700000000000000,-0.0725028984843920500000000000000,-0.01783733025222224200000000000000,-0.06782675740934898700000000000000,0.04752670244730489200000000000000,0.05028448111968173600000000000000,0.09040729390226627500000000000000,0.1019322557064386700000000000000,0.07444385548352562600000000000000,0.08771230504614363500000000000000,0.0335082649546907600000000000000,0.06263210032326117800000000000000,-0.05278052244424968200000000000000,0.01330012795213983400000000000000,-0.008753538060108968100000000000000,0.07307868281440248200000000000000,-0.002436590332751648900000000000000,0.007819714121518515900000000000000,-0.007398876958182824300000000000000,0.03194141555252587300000000000000,0.070199232220043900000000000000,0.01576118193582270300000000000000,0.07173899846810634400000000000000,-0.06230949426175692900000000000000,-0.03285461264622192200000000000000,-0.06562941278263038900000000000000,0.1225070830805502900000000000000,0.04846201004447232800000000000000,-0.002731099327986051400000000000000,0.094133977893330500000000000000,0.08612180521278273200000000000000,0.04440984559926179600000000000000,0.10844506044852900000000000000,-0.01691790676369202600000000000000,0.0004999226657713749600000000000000,0.003728634368961604100000000000000,-0.01211045357698103300000000000000,0.07430793682854823500000000000000,-0.05486585023695340200000000000000,0.09549031260838564100000000000000,0.008137456811163059800000000000000,0.1104488320279492200000000000000,0.009717572643692664100000000000000,-0.003757468349253964600000000000000,0.0026682079471604600000000000000,0.1038472714661201300000000000000,0.1206920774407138200000000000000,-0.06340300170365745200000000000000,-0.04974957670630450500000000000000,0.00672107626449280300000000000000,0.05535204974851639500000000000000,-0.01579156262685466100000000000000,-0.04859207592006820100000000000000,0.1085723879916588700000000000000,0.07453524583477166800000000000000,0.06930806942763330400000000000000,-0.02392718579270926300000000000000,0.1163376250420509200000000000000,0.1066356262436376200000000000000,-0.04050074347989686400000000000000,-0.03423396162437160300000000000000,-0.02529561130424565600000000000000,0.1123449325625211100000000000000,0.08889893891907564600000000000000,-0.03037339546795192100000000000000,-0.01857100624284097400000000000000,-0.03703220431446398200000000000000,0.04903310103605119900000000000000,0.09698899400054708500000000000000,0.05507362131606186700000000000000,0.06241746489535571900000000000000,0.04742198378993638100000000000000,-0.03303156767476578300000000000000,0.1108957540722035900000000000000,0.04469933462862543700000000000000,0.1396067901163844900000000000000,0.03696251621396299400000000000000,0.001035126528951918900000000000000,-0.02175337722299531100000000000000,0.1417893514697568200000000000000,0.09025044309861472700000000000000,-0.02438883101377817600000000000000,0.00796677076854119400000000000000,0.02954418101884452900000000000000,0.06538992582369426700000000000000,0.1208651341616757600000000000000,0.06677695620635672200000000000000,0.1289838402606631500000000000000,0.107605169344704600000000000000,0.1298646228994330700000000000000,-0.01292340463717392100000000000000,0.1067959883740056300000000000000,0.02351893760826273500000000000000,0.06343551614625976600000000000000,0.04434760875409835700000000000000,0.06543383192453562600000000000000,0.02092214957731185900000000000000,0.05617593109702688500000000000000,0.06301475028517115900000000000000,-0.05072968123113882200000000000000,0.1140682541257244400000000000000,0.02455020902604172100000000000000,0.1169578921871838600000000000000,-0.03107668192189854500000000000000,0.07664617317887238700000000000000,0.1334926558636765900000000000000,-0.04486911127073909400000000000000,0.04885822590824356900000000000000,0.1231819376742919700000000000000,0.07712263039456716800000000000000,-0.0162894530250908100000000000000,0.005553720965873452200000000000000,9.783387894293038400000000000000e-005,0.1304095950140627100000000000000,0.1366497442514716400000000000000,0.06159007571749343400000000000000,0.06767168817925503500000000000000,0.02783999002599759100000000000000,0.064737126342813700000000000000,0.002772098850539594700000000000000,0.05482441156204195100000000000000,0.02497470784496164800000000000000,-0.02453222641706207300000000000000,-0.01640853168876732500000000000000,0.06669465458155768300000000000000,-0.0002361873484128719900000000000000,-0.04535744525510915200000000000000,0.08822056852138315800000000000000,0.1276341427709703800000000000000,-0.05051732497737686900000000000000,0.1003480193490987500000000000000,0.05238940730892879100000000000000,0.03963354246454678400000000000000,-0.06050554664190124800000000000000,0.1016326816824758100000000000000,0.05323346112858021900000000000000,0.0386407247087907500000000000000,0.06035221837144499900000000000000,-0.007688851982594070400000000000000,-0.02726843785235339600000000000000,0.02872639402602684600000000000000,0.04937812336528611700000000000000,0.1113355807891789900000000000000,0.0412195142154200000000000000,0.07665293514099345800000000000000,-0.06727302933206820400000000000000,0.001268679053945328200000000000000,0.0674907139334036400000000000000,-0.05307901274647627800000000000000,-0.05531985221737643200000000000000,0.07583602616822404700000000000000,-0.03895430741657437300000000000000,-0.04062121030997380800000000000000,0.0799919346634193900000000000000,-0.01240705272701785900000000000000,-0.04645604078149076500000000000000,-0.04961472747937436400000000000000,-0.06445193364395336600000000000000,0.1276555842019882800000000000000,0.02517571965335312800000000000000,0.01848070210532955900000000000000,-0.001727615501843908700000000000000,-0.0118509424124651400000000000000,-0.05765067976120696200000000000000,0.03639864205027736100000000000000,0.03408898003784435700000000000000,0.01869149248105918300000000000000,0.01307905490411881600000000000000,0.009954665941793535200000000000000,-0.06392849574204297100000000000000,0.1082864216095653500000000000000,-0.03409802768501219600000000000000,0.06588857403187993500000000000000,0.08619685580935404500000000000000,0.1240527036459864300000000000000,0.05937747493730903500000000000000,-0.0509245135910615100000000000000,-0.01138352773148452100000000000000,0.03769581224386987800000000000000,0.0273937632295187600000000000000,0.01115240741259605900000000000000,0.02891412268027812200000000000000,0.07108153818534297700000000000000,-0.03268603283631776900000000000000,-0.02914994943220320900000000000000,0.117593833389252100000000000000,-0.007754420375142226900000000000000,-0.02299176837171269500000000000000,0.0285185623997446100000000000000,0.07211527046509337600000000000000,-0.006873145146066827700000000000000,0.04682506637654268400000000000000,0.01484661239905953600000000000000,0.09546202514525756200000000000000,0.08007816667784435600000000000000,0.01278404821488907600000000000000,-0.04402904894095709100000000000000,0.005766203305221287600000000000000,0.008587213257806614400000000000000,0.07782614113512659200000000000000,-0.06442313153553889900000000000000,-0.02491190395372460500000000000000,0.09329302753180723800000000000000,0.106183369961035600000000000000,0.03578891727158184400000000000000,0.03178322358972924400000000000000,0.1247431535932334700000000000000,-0.001389745629417943700000000000000,0.0375517224145010400000000000000,0.08423470230160255700000000000000,0.1240722431873731900000000000000,-0.04688581284617685700000000000000,0.06223172387438363800000000000000,0.121188809880517100000000000000,-0.03338090599223016800000000000000,0.119061053269857800000000000000,0.03538951914969481300000000000000,-0.05477798976623982100000000000000,0.006236573248356433100000000000000,0.04951741516139750200000000000000,-0.04582513351367747300000000000000,0.09611048721181031400000000000000,0.1310106257456682700000000000000,0.05901608872100030200000000000000,0.03916445795207493300000000000000,0.1192866454518839300000000000000,-0.01829250905579637300000000000000,0.09236641317801333500000000000000,-0.04725586723511292200000000000000,0.03681869522784462400000000000000,-0.03495472265389660400000000000000,0.01139448091377741700000000000000,-0.03569820132835673600000000000000,-0.0238318659898442800000000000000,-0.008340847079572912700000000000000,0.10518017183192800000000000000,0.04402712925795620300000000000000,0.01371904811815848800000000000000,-0.02924272039478739400000000000000,0.1306799788650168900000000000000,-0.03322526313527439400000000000000,-0.01122361871614359500000000000000,-0.006783983669194412100000000000000,0.08919548739847270300000000000000,0.006657817727483503900000000000000,-0.05542212952106665600000000000000,0.03328679336408344600000000000000,0.04605463948171808300000000000000,0.1037119049659565700000000000000,-0.04740143395624744900000000000000,0.1007943742508471300000000000000,-0.001371444336750828700000000000000,0.08464534574466939200000000000000,-0.02376166533023464600000000000000,0.0751968817727870500000000000000,0.09979524897795276400000000000000,0.01780297351380486600000000000000,0.1302027010136041200000000000000,-0.04761699744110509800000000000000,0.04210295915536068500000000000000,0.08469994491659296700000000000000,-0.008065526756774814600000000000000,0.1353812607022312800000000000000,0.1104292730825000200000000000000,0.04817523076194889900000000000000,0.1209745064236945600000000000000,0.1010743113676437300000000000000,0.1077449070194691400000000000000,0.0994555833952095600000000000000,0.04321505286339518600000000000000,0.07280875486512271300000000000000,0.0612235639248025900000000000000,-0.03491537544784723700000000000000,0.05539964674587342900000000000000,0.03153075355753094700000000000000,0.114554614465194900000000000000,0.05460084913063856200000000000000,0.1069145856318812100000000000000,0.09561491306629389700000000000000,0.1131558217599525600000000000000,0.1304241399710038800000000000000,0.1146632094147935200000000000000,0.001338541285381583500000000000000,0.08773854117019912200000000000000,0.08175057301959087800000000000000,-0.0327661495295473100000000000000,0.1149110420169510700000000000000,-0.05661685210108372700000000000000,0.0826027352510257800000000000000,-0.02483408144071823400000000000000,0.1073619430025283400000000000000,-0.04028031717408365300000000000000,0.116254863963801400000000000000,0.02275306555876230700000000000000,0.123685974575039400000000000000,0.008528363484172999200000000000000,-0.0531556396432393900000000000000,-0.02180233372026991700000000000000,-0.02278262930861797400000000000000,0.09572083913448674300000000000000,0.1195474982268942700000000000000,0.0183184935521669700000000000000,0.0007903914973958340400000000000000,0.1327477414916430900000000000000,0.07033540270029364800000000000000,0.02402654682521341100000000000000,0.08565206312687011200000000000000,-0.0552422319967528500000000000000,0.12702844206784300000000000000,0.1023344476905400500000000000000,-0.06031811660655169600000000000000,0.02117231964044047300000000000000,0.08230869650249361700000000000000,-0.008053997176303329800000000000000,0.09590812280365990100000000000000,0.01518369830001771300000000000000,0.1205748164561961100000000000000,0.008456402203869849800000000000000,0.1025313404791691800000000000000,0.09815428554476411700000000000000,-0.02079356228291574800000000000000,0.08449781540702612500000000000000,0.02613737015236187300000000000000,-0.02438421507158324400000000000000,0.1262161243705710600000000000000,-0.03721530145639270100000000000000,0.09883936893611931800000000000000,0.07050531171654170200000000000000,0.03477535628900623600000000000000,0.09684567917417233300000000000000,0.0407775342676556800000000000000,0.08053164246416587300000000000000,-0.06332434788298370300000000000000,0.115990198461354900000000000000,0.0894166326126193400000000000000,0.01566705857454148800000000000000,-0.06476397468524254500000000000000,0.01170835000741367800000000000000,0.06676265008315120100000000000000,0.1213808567222318300000000000000,0.05924254577536607800000000000000,0.1001764097756063800000000000000,0.1153856257515073500000000000000,-0.004682940229904725500000000000000,-0.0606199965846798900000000000000,0.1186886307534466300000000000000,0.03524054341643154800000000000000,0.1020705596935366400000000000000,0.08799394232322224600000000000000,0.1110055383857561100000000000000,0.05191184601753316700000000000000,-0.006536263919941090800000000000000,0.06369123006030981400000000000000,0.05884973355019599400000000000000,-0.05238744801170718700000000000000,0.03993181734975698900000000000000,0.101861906978016200000000000000,0.1148719375595983700000000000000,-0.01302115129565519300000000000000,-0.02020794539668074500000000000000,0.09249688143252925200000000000000,-0.005635105214493353300000000000000,-0.03282800765598478700000000000000,0.09174500992382815500000000000000,0.08688165987055206100000000000000,-0.01909367701425504800000000000000,0.02568206296459210600000000000000,0.09807175474245756500000000000000,0.0132051031095840300000000000000,0.103101723678958600000000000000,0.135320594128491100000000000000,0.004040293554847446100000000000000,-0.01576535083323823600000000000000,0.1381170765318011600000000000000,0.1187586990560152200000000000000,-0.02046082351339696700000000000000,0.07634611511415735600000000000000,-0.001741356571009298500000000000000,0.1132374283101450200000000000000,0.08974245216399061300000000000000,-0.03723589562088735300000000000000,-0.04254635229624780700000000000000,0.1168676955445908100000000000000,-0.01884960607945559300000000000000,0.08098628809001273700000000000000,0.07287646488516988400000000000000,-0.0517601725389776200000000000000,0.1284544419850961500000000000000,0.1167925460043756400000000000000,0.05902956082132862500000000000000,0.04955778959776311500000000000000,-0.05080061699763993600000000000000,0.08503548575441199900000000000000,-0.03041722630220915600000000000000,0.0656518286367933500000000000000,-0.007588350163170033700000000000000,-0.01078946263574709400000000000000,-0.05591537350073873300000000000000,0.02939374923338981500000000000000,0.1071136242329846900000000000000,-0.05930533622360194300000000000000,-0.0250771607200740500000000000000,0.08514889293790466100000000000000,-0.002792675869316782700000000000000,0.1191127598129006600000000000000,-0.04821958030597747700000000000000,-0.01879853003185931800000000000000,0.06890425623747506400000000000000,0.05482657500570228100000000000000,-0.06139480109003270900000000000000,0.06269726778901767200000000000000,-0.022888723508144800000000000000,0.01491855794639886400000000000000,-0.05923926209353246700000000000000,-0.003834284563714381900000000000000,-0.02333794784458338700000000000000,-0.02580521587839539700000000000000,0.1173534167297771600000000000000,-0.0430861461724263500000000000000,0.08518685352181132300000000000000,-0.04815359723272684400000000000000,0.0956085752369881800000000000000,0.110468125004849200000000000000,-0.0368952700665034700000000000000,-0.004601152427037386200000000000000,-0.05633012684097632400000000000000,0.1196350871757269300000000000000,0.1181089249292084600000000000000,-0.006422314225570217200000000000000,0.05767144220499687700000000000000,0.1078793901259826700000000000000,0.139056580992707600000000000000,-0.003525092689365778900000000000000,0.1191681591534550100000000000000,0.01705307222033495800000000000000,-0.03911871323046057400000000000000,0.03002491910665240600000000000000,-0.03038990079091722500000000000000,-0.04918468355642047900000000000000,0.1073365693372476400000000000000,0.09513091604212142700000000000000,0.02232244516767449200000000000000,0.1177716624225905200000000000000,-0.01251347780968195500000000000000,0.06650465345206553500000000000000,0.1261437883200979800000000000000,-0.008850370340619886200000000000000,0.01246019678156732800000000000000,-0.06058155889970302100000000000000,0.1435329834834992400000000000000,0.003836855164266519400000000000000,-0.04274706392770414400000000000000,-0.06408940896703545200000000000000,-0.02993437419337705400000000000000,-0.01343962002674525800000000000000,0.09330512472352103800000000000000,0.04277242150173707300000000000000,-0.03221289433640175900000000000000,-0.01025481981165916200000000000000,-0.02188280398449822500000000000000,-0.03358846002840500800000000000000,-0.007008255971490831900000000000000,0.06280252169355229900000000000000,-0.3163744514388438500000000000000,0.1264877472371961600000000000000,-0.140015116954833400000000000000,0.102882621712892500000000000000,-0.1398401894463266500000000000000,0.040844129565469400000000000000,-0.1691472776978812900000000000000,0.02282611364787526900000000000000,-0.2720383944759451300000000000000,0.051835922832507500000000000000,-0.1295015408245389400000000000000,0.05361110691784379300000000000000,-0.2644296442641834700000000000000,0.1116234601991748900000000000000,-0.2227195273760144400000000000000,0.001386089287058740100000000000000,-0.2381958756731658300000000000000,0.02437452579605771700000000000000,-0.1899460411818113800000000000000,0.02580709518616576900000000000000,-0.2701445026189545600000000000000,0.1376159631340561900000000000000,-0.1812901224118736700000000000000,0.079219827254760400000000000000,-0.115231942073126400000000000000,0.1202929358404691800000000000000,-0.1391736319400075100000000000000,0.02706127681900249600000000000000,-0.1193923199666997700000000000000,0.1637654519344833900000000000000,-0.1154436882635055800000000000000,0.1510030214802807500000000000000,-0.1703367164703328300000000000000,0.1035971801097294200000000000000,-0.1682963836859004400000000000000,0.2355545640123218300000000000000,-0.2350713574019762100000000000000,0.173073076842152200000000000000,-0.1834644422665496800000000000000,-0.0003448825959751624700000000000000,-0.1844139211023817500000000000000,0.2139419771574714600000000000000,-0.1962602851235246700000000000000,0.202704901485201900000000000000,-0.2521202590346854900000000000000,0.2102698306888991800000000000000,-0.140259972768299100000000000000,0.07176465789422792300000000000000,-0.1056535639660578800000000000000,0.0957921278111433100000000000000,-0.2525496794792306300000000000000,0.1995828314120639800000000000000,-0.2610538041207718900000000000000,0.1369468887114355100000000000000,-0.2481386254238652800000000000000,0.148493906294392800000000000000,-0.1384232279556248400000000000000,0.2473395151312460200000000000000,-0.05245651707697093800000000000000,0.06894014634694585500000000000000,-0.2475061664822491300000000000000,0.2316883987405758700000000000000,-0.11283479716482800000000000000,0.2457936508295182600000000000000,-0.2446304479641697400000000000000,0.1337575680618698600000000000000,-0.0474469025907283400000000000000,0.06176669325309538900000000000000,-0.2188691299100991900000000000000,0.2411326651414214300000000000000,-0.259056325599449300000000000000,0.1048433030915902600000000000000,-0.05963543878764837600000000000000,0.2687258339271432800000000000000,-0.09262817073252667400000000000000,0.1883696467158835500000000000000,-0.2031027266558009200000000000000,0.1282158786184049400000000000000,-0.1508582439216426800000000000000,0.2504428347154400400000000000000,-0.05730670789440175900000000000000,0.1645840879789214100000000000000,-0.1037879599905796700000000000000,0.05435865682611560500000000000000,-0.1598272114062498400000000000000,0.2419803717134356700000000000000,-0.02601281229657279700000000000000,0.1439424674051162100000000000000,-0.1402719080959709800000000000000,0.3019196351347153100000000000000,0.01469594437438949200000000000000,0.1850542445199666300000000000000,-0.1548604666269224100000000000000,0.3005656791701065100000000000000,0.05356100569924517100000000000000,0.09509360874808674100000000000000,0.05398761179630837100000000000000,0.1125522404225608700000000000000,-0.02846006125601872500000000000000,0.1503577893161761300000000000000,0.06711460130639364300000000000000,0.1304696398883169200000000000000,0.03515036397087834700000000000000,0.2189026934486741900000000000000,0.09164184500251813800000000000000,0.03507116398830924200000000000000,-0.0145257837833711600000000000000,0.008977138273883406400000000000000,0.03709437105021081600000000000000,0.1928543253008695200000000000000,-0.05331730117427010300000000000000,0.03295855355231849800000000000000,-0.03322044064467892500000000000000,-0.04888201014355178500000000000000,0.06879956351793051200000000000000,-0.02951201621668797200000000000000,-0.03271523635524340600000000000000,0.06255653081222795100000000000000,0.05111222362190999400000000000000,0.0384781373750114200000000000000,-0.0172061357708666600000000000000,0.01095772945526499900000000000000,0.02653670985667404300000000000000,-0.1190933818477338100000000000000,0.03005609417060979900000000000000,-0.04328580401024598900000000000000,-0.1213282956154052200000000000000,-0.1318431241738944900000000000000,-0.1727040138386868600000000000000,-0.1662470324410527700000000000000,-0.09507551717839561600000000000000,-0.2033876667838110700000000000000,-0.176503931197410900000000000000,-0.07922501048319886800000000000000,-0.1126822576541622600000000000000,-0.09033857150955217100000000000000,-0.2525819581609620200000000000000,-0.0715949587778283300000000000000,-0.2627836701807240200000000000000,-0.1044934638828629200000000000000,-0.4074312727570363300000000000000,-0.1396731236997990300000000000000,-0.3639462654601426400000000000000,0.00773247942348071100000000000000,-0.3088855069834849400000000000000,-0.1192189257959770200000000000000,-0.3140571377669490500000000000000,-0.09518129610409586900000000000000,-0.4407236795835098900000000000000,-0.04442353356736979100000000000000,-0.4352934082381819700000000000000,0.1028283714409416700000000000000,-0.4876194780430554400000000000000,0.1506936811716272900000000000000,-0.3297130959468027600000000000000,0.1588486611493589700000000000000,-0.3165661076095626600000000000000,0.08342318796565532900000000000000,-0.4463581176164417300000000000000,0.2181727190989303500000000000000,-0.3999858608318779300000000000000,0.1586995017717344500000000000000,-0.329019282541506700000000000000,0.2159155874137468900000000000000,-0.4184646415508998500000000000000,0.321421093475464600000000000000,-0.4339504439125272400000000000000,0.242747882874906200000000000000,-0.3397634265622329100000000000000,0.304582168586302600000000000000,-0.295236164105714900000000000000,0.4303805503645413100000000000000,-0.2837432327791290500000000000000,0.4633572202417819400000000000000,-0.3346994135839926900000000000000,0.4373117703541610200000000000000,-0.1930929342205164300000000000000,0.3157383137986489200000000000000,-0.157485059765854700000000000000,0.4857039486131213800000000000000,-0.08526817068673002400000000000000,0.3791186253351280800000000000000,-0.106024776969879300000000000000,0.4844232594652560500000000000000,-0.03993377136490680600000000000000,0.512753228110476300000000000000,-0.04863729644398345800000000000000,0.5419316573154258100000000000000,-0.1258237569297778700000000000000,0.5150393798026099400000000000000,0.06275402803570551100000000000000,0.504714601871916300000000000000,0.01317225875701088900000000000000,0.4368030601002804200000000000000,0.0683632844356807800000000000000,0.4338996924271392700000000000000,0.05842459678526079600000000000000,0.3988081058611543900000000000000,0.202657267171135300000000000000,0.5240168414961787800000000000000,0.2356901820979508100000000000000,0.4253528844767353600000000000000,0.1151407571453217200000000000000,0.4626423232178326100000000000000,0.1059329894610157700000000000000,0.3318074567624584300000000000000,0.117284323059666500000000000000,0.3577241109970492600000000000000,0.3111778042107587500000000000000,0.4414196265534445800000000000000,0.3422543545902498300000000000000,0.3220028200056064300000000000000,0.2114182057321412600000000000000,0.2469185449028660800000000000000,0.3401846935955185600000000000000,0.3391895557099284300000000000000,0.3224963535674850200000000000000,0.3232485208321730900000000000000,0.2998599368703492300000000000000,0.1702252218323262200000000000000,0.3981062649765905700000000000000,0.2257830680171253900000000000000,0.3208931861726570500000000000000,0.1027273383839144200000000000000,0.3243989454795942500000000000000,0.2031123491261062300000000000000,0.3656667086861624700000000000000,0.08347019854780388100000000000000,0.299034981086232500000000000000,0.1061432514380274600000000000000,0.4335888785516943700000000000000,0.1090718893167897700000000000000,0.3629345296766796600000000000000,0.05181113924366688400000000000000,0.3276628456234893500000000000000,0.08126111736232963200000000000000,0.3654414219481898500000000000000,-0.04306124939016115600000000000000,0.3858909992164967200000000000000,0.002132020989506128200000000000000,0.378328709405184700000000000000,0.01557009346910645700000000000000,0.2839747604452683700000000000000,-0.1187596798687777400000000000000,0.2649232266731749700000000000000,-0.03042759439590888400000000000000,0.3172520177674897400000000000000,-0.0750826964123336300000000000000,0.2794953752319445700000000000000,-0.1654887106786588900000000000000,0.2845616746559472300000000000000,-0.1869359728096391900000000000000,0.1591663101196958700000000000000,-0.1690295343901642400000000000000,0.2187966078642663800000000000000,-0.1284172701770532300000000000000,0.175439451261802800000000000000,-0.2355773839558779600000000000000,0.09062347029665249200000000000000,-0.2740066533350957700000000000000,0.09406511365139719200000000000000,-0.2594493522913101600000000000000,0.1390139238156673800000000000000,-0.2230783209003104900000000000000,0.01868485586532597100000000000000,-0.1159893269763619700000000000000,0.06689692757378937200000000000000,-0.19629495649392800000000000000,0.03581615111328646800000000000000,-0.2371774491003585400000000000000,0.007272774353700287900000000000000,-0.2602981151630819900000000000000,0.03345040731206508400000000000000,-0.275790830399234300000000000000,-0.04072899159387538500000000000000,-0.2542325802283786400000000000000,-0.02588469158923623400000000000000,-0.1147011909321501700000000000000,-0.1514371252424282800000000000000,-0.1608996044198871300000000000000,-0.2152534826535225400000000000000,-0.08957620953389029700000000000000,-0.1275461117816194300000000000000,-0.2198801903080988600000000000000,-0.1507882810893129700000000000000,-0.1340773601123197200000000000000,